<?xml version="1.0"?>
<opencv_storage>
<cascade>
  <stageType>BOOST</stageType>
  <featureType>HAAR</featureType>
  <height>24</height>
  <width>24</width>
  <stageParams>
    <boostType>GAB</boostType>
    <minHitRate>9.9500000476837158e-01</minHitRate>
    <maxFalseAlarm>5.0000000000000000e-01</maxFalseAlarm>
    <weightTrimRate>9.4999998807907104e-01</weightTrimRate>
    <maxDepth>1</maxDepth>
    <maxWeakCount>100</maxWeakCount></stageParams>
  <featureParams>
    <maxCatCount>0</maxCatCount>
    <featSize>1</featSize>
    <mode>BASIC</mode></featureParams>
  <stageNum>20</stageNum>
  <stages>
    <!-- stage 0 -->
    <_>
      <maxWeakCount>12</maxWeakCount>
      <stageThreshold>-1.2038025856018066e+00</stageThreshold>
      <weakClassifiers>
        <_>
          <internalNodes>
            0 -1 155 1.9852038472890854e-02</internalNodes>
          <leafValues>
            -6.0389608144760132e-01 9.4237697124481201e-01</leafValues></_>
        <_>
          <internalNodes>
            0 -1 10 -2.4444092065095901e-02</internalNodes>
          <leafValues>
            5.3511577844619751e-01 -2.8113949298858643e-01</leafValues></_>
        <_>
          <internalNodes>
            0 -1 140 1.1039385199546814e-01</internalNodes>
          <leafValues>
            -1.7982383072376251e-01 7.1197086572647095e-01</leafValues></_>
        <_>
          <internalNodes>
            0 -1 198 -1.4296323060989380e-01</internalNodes>
          <leafValues>
            7.7552092075347900e-01 -1.8988953530788422e-01</leafValues></_>
        <_>
          <internalNodes>
            0 -1 67 5.9074275195598602e-02</internalNodes>
          <leafValues>
            -2.4974870681762695e-01 4.6405950188636780e-01</leafValues></_>
        <_>
          <internalNodes>
            0 -1 493 -3.9337467402219772e-02</internalNodes>
          <leafValues>
            7.0215249061584473e-01 -1.4419664442539215e-01</leafValues></_>
        <_>
          <internalNodes>
            0 -1 386 -5.5177148431539536e-02</internalNodes>
          <leafValues>
            6.6789990663528442e-01 -1.3052602112293243e-01</leafValues></_>
        <_>
          <internalNodes>
            0 -1 252 4.2779572308063507e-02</internalNodes>
          <leafValues>
            -1.6391667723655701e-01 5.6880044937133789e-01</leafValues></_>
        <_>
          <internalNodes>
            0 -1 341 3.8776375353336334e-02</internalNodes>
          <leafValues>
            -1.4451585710048676e-01 5.7647645473480225e-01</leafValues></_>
        <_>
          <internalNodes>
            0 -1 159 9.4365477561950684e-02</internalNodes>
          <leafValues>
            -1.1059443652629852e-01 6.4908409118652344e-01</leafValues></_>
        <_>
          <internalNodes>
            0 -1 23 -3.9267927408218384e-02</internalNodes>
          <leafValues>
            3.8752490282058716e-01 -2.5546038150787354e-01</leafValues></_>
        <_>
          <internalNodes>
            0 -1 222 8.8704138994216919e-02</internalNodes>
          <leafValues>
            -1.0688836127519608e-01 6.2761670351028442e-01</leafValues></_></weakClassifiers></_>
    <!-- stage 1 -->
    <_>
      <maxWeakCount>18</maxWeakCount>
      <stageThreshold>-1.3542679548263550e+00</stageThreshold>
      <weakClassifiers>
        <_>
          <internalNodes>
            0 -1 114 8.3717457950115204e-02</internalNodes>
          <leafValues>
            -6.0210698843002319e-01 9.4451147317886353e-01</leafValues></_>
        <_>
          <internalNodes>
            0 -1 31 4.4060632586479187e-02</internalNodes>
          <leafValues>
            -1.2395256757736206e-01 8.9735174179077148e-01</leafValues></_>
        <_>
          <internalNodes>
            0 -1 217 -2.0013904571533203e-01</internalNodes>
          <leafValues>
            7.0233571529388428e-01 -1.1153740435838699e-01</leafValues></_>
        <_>
          <internalNodes>
            0 -1 190 -5.3037261962890625e-01</internalNodes>
          <leafValues>
            8.1844151020050049e-01 -1.0267897695302963e-01</leafValues></_>
        <_>
          <internalNodes>
            0 -1 17 3.0352658033370972e-01</internalNodes>
          <leafValues>
            -9.5223374664783478e-02 7.4554383754730225e-01</leafValues></_>
        <_>
          <internalNodes>
            0 -1 272 -1.2934055924415588e-01</internalNodes>
          <leafValues>
            6.2024766206741333e-01 -1.3630257546901703e-01</leafValues></_>
        <_>
          <internalNodes>
            0 -1 70 -8.7099999189376831e-02</internalNodes>
          <leafValues>
            6.7118990421295166e-01 -9.0236566960811615e-02</leafValues></_>
        <_>
          <internalNodes>
            0 -1 143 3.6394424736499786e-02</internalNodes>
          <leafValues>
            -1.2094502896070480e-01 5.1591956615447998e-01</leafValues></_>
        <_>
          <internalNodes>
            0 -1 85 -6.5850250422954559e-02</internalNodes>
          <leafValues>
            5.2134132385253906e-01 -1.1484028398990631e-01</leafValues></_>
        <_>
          <internalNodes>
            0 -1 401 -5.9322845190763474e-03</internalNodes>
          <leafValues>
            -8.7376105785369873e-01 7.7700197696685791e-02</leafValues></_>
        <_>
          <internalNodes>
            0 -1 398 7.7599193900823593e-03</internalNodes>
          <leafValues>
            1.0925585031509399e-01 -7.7442777156829834e-01</leafValues></_>
        <_>
          <internalNodes>
            0 -1 98 -2.7004007250070572e-02</internalNodes>
          <leafValues>
            -9.2911595106124878e-01 5.3433939814567566e-02</leafValues></_>
        <_>
          <internalNodes>
            0 -1 139 1.9496399909257889e-02</internalNodes>
          <leafValues>
            -2.1934546530246735e-01 2.3541279137134552e-01</leafValues></_>
        <_>
          <internalNodes>
            0 -1 366 2.0226677879691124e-03</internalNodes>
          <leafValues>
            5.1045618951320648e-02 -7.8912830352783203e-01</leafValues></_>
        <_>
          <internalNodes>
            0 -1 441 -3.7231311202049255e-02</internalNodes>
          <leafValues>
            3.8590386509895325e-01 -1.2899914383888245e-01</leafValues></_>
        <_>
          <internalNodes>
            0 -1 367 -2.0682779140770435e-03</internalNodes>
          <leafValues>
            -5.6693965196609497e-01 9.2408716678619385e-02</leafValues></_>
        <_>
          <internalNodes>
            0 -1 490 -4.1715197265148163e-02</internalNodes>
          <leafValues>
            4.9052196741104126e-01 -1.0794636607170105e-01</leafValues></_>
        <_>
          <internalNodes>
            0 -1 216 -8.4559917449951172e-02</internalNodes>
          <leafValues>
            5.7214337587356567e-01 -9.4310417771339417e-02</leafValues></_></weakClassifiers></_>
    <!-- stage 2 -->
    <_>
      <maxWeakCount>23</maxWeakCount>
      <stageThreshold>-1.4404950141906738e+00</stageThreshold>
      <weakClassifiers>
        <_>
          <internalNodes>
            0 -1 107 4.4236287474632263e-02</internalNodes>
          <leafValues>
            -6.0589921474456787e-01 9.0654206275939941e-01</leafValues></_>
        <_>
          <internalNodes>
            0 -1 335 -9.2250533401966095e-02</internalNodes>
          <leafValues>
            8.3387458324432373e-01 -1.3432565331459045e-01</leafValues></_>
        <_>
          <internalNodes>
            0 -1 161 -3.9953434467315674e-01</internalNodes>
          <leafValues>
            6.1964440345764160e-01 -1.1537947505712509e-01</leafValues></_>
        <_>
          <internalNodes>
            0 -1 282 -1.0932613164186478e-01</internalNodes>
          <leafValues>
            6.1637175083160400e-01 -8.9310683310031891e-02</leafValues></_>
        <_>
          <internalNodes>
            0 -1 374 9.8194584250450134e-02</internalNodes>
          <leafValues>
            -8.1333994865417480e-02 6.6680669784545898e-01</leafValues></_>
        <_>
          <internalNodes>
            0 -1 150 2.2643948905169964e-03</internalNodes>
          <leafValues>
            7.2307989001274109e-02 -6.7628502845764160e-01</leafValues></_>
        <_>
          <internalNodes>
            0 -1 162 3.2207914046011865e-05</internalNodes>
          <leafValues>
            -1.1564479023218155e-01 4.2083540558815002e-01</leafValues></_>
        <_>
          <internalNodes>
            0 -1 174 1.4296668767929077e-01</internalNodes>
          <leafValues>
            -1.6594719886779785e-01 4.4827190041542053e-01</leafValues></_>
        <_>
          <internalNodes>
            0 -1 68 -1.8358388543128967e-01</internalNodes>
          <leafValues>
            5.1773750782012939e-01 -1.2775945663452148e-01</leafValues></_>
        <_>
          <internalNodes>
            0 -1 246 -6.9581046700477600e-02</internalNodes>
          <leafValues>
            5.8420348167419434e-01 -8.8818937540054321e-02</leafValues></_>
        <_>
          <internalNodes>
            0 -1 202 5.8797999372472987e-05</internalNodes>
          <leafValues>
            -2.0958444476127625e-01 2.1193103492259979e-01</leafValues></_>
        <_>
          <internalNodes>
            0 -1 569 -4.8580551519989967e-03</internalNodes>
          <leafValues>
            -6.6001230478286743e-01 7.7236823737621307e-02</leafValues></_>
        <_>
          <internalNodes>
            0 -1 312 -4.4178146868944168e-02</internalNodes>
          <leafValues>
            7.9262948036193848e-01 -6.4017988741397858e-02</leafValues></_>
        <_>
          <internalNodes>
            0 -1 64 1.0090911388397217e-01</internalNodes>
          <leafValues>
            -9.5947034657001495e-02 4.0022999048233032e-01</leafValues></_>
        <_>
          <internalNodes>
            0 -1 463 4.5862942934036255e-02</internalNodes>
          <leafValues>
            -1.0651192069053650e-01 3.9874392747879028e-01</leafValues></_>
        <_>
          <internalNodes>
            0 -1 450 1.8185786902904510e-02</internalNodes>
          <leafValues>
            6.8475998938083649e-02 -6.8133300542831421e-01</leafValues></_>
        <_>
          <internalNodes>
            0 -1 538 -7.2864640969783068e-05</internalNodes>
          <leafValues>
            2.1399860084056854e-01 -2.1257543563842773e-01</leafValues></_>
        <_>
          <internalNodes>
            0 -1 243 -1.7380271106958389e-02</internalNodes>
          <leafValues>
            5.4736149311065674e-01 -8.1203944981098175e-02</leafValues></_>
        <_>
          <internalNodes>
            0 -1 387 3.7997517210897058e-05</internalNodes>
          <leafValues>
            -1.6974292695522308e-01 2.3223635554313660e-01</leafValues></_>
        <_>
          <internalNodes>
            0 -1 88 -6.1375023797154427e-03</internalNodes>
          <leafValues>
            -5.2478104829788208e-01 8.1243932247161865e-02</leafValues></_>
        <_>
          <internalNodes>
            0 -1 495 1.0847945231944323e-03</internalNodes>
          <leafValues>
            -1.9975905120372772e-01 2.3122645914554596e-01</leafValues></_>
        <_>
          <internalNodes>
            0 -1 487 3.5734452307224274e-02</internalNodes>
          <leafValues>
            5.6917890906333923e-02 -8.6508041620254517e-01</leafValues></_>
        <_>
          <internalNodes>
            0 -1 227 1.3358646538108587e-03</internalNodes>
          <leafValues>
            -1.7228500545024872e-01 2.3851901292800903e-01</leafValues></_></weakClassifiers></_>
    <!-- stage 3 -->
    <_>
      <maxWeakCount>23</maxWeakCount>
      <stageThreshold>-1.3415280580520630e+00</stageThreshold>
      <weakClassifiers>
        <_>
          <internalNodes>
            0 -1 188 2.0814189687371254e-02</internalNodes>
          <leafValues>
            -6.0735172033309937e-01 8.3167219161987305e-01</leafValues></_>
        <_>
          <internalNodes>
            0 -1 33 1.8602034449577332e-01</internalNodes>
          <leafValues>
            -1.5495467185974121e-01 7.8381222486495972e-01</leafValues></_>
        <_>
          <internalNodes>
            0 -1 78 -2.0277559757232666e-02</internalNodes>
          <leafValues>
            4.5546466112136841e-01 -1.3131225109100342e-01</leafValues></_>
        <_>
          <internalNodes>
            0 -1 269 -1.0359172523021698e-01</internalNodes>
          <leafValues>
            5.7294529676437378e-01 -9.6672408282756805e-02</leafValues></_>
        <_>
          <internalNodes>
            0 -1 319 -9.2153906822204590e-02</internalNodes>
          <leafValues>
            4.6970596909523010e-01 -1.1388918012380600e-01</leafValues></_>
        <_>
          <internalNodes>
            0 -1 371 6.3865862786769867e-02</internalNodes>
          <leafValues>
            -1.5954203903675079e-01 3.5377758741378784e-01</leafValues></_>
        <_>
          <internalNodes>
            0 -1 111 -2.4172842502593994e-02</internalNodes>
          <leafValues>
            -5.7161819934844971e-01 1.0474045574665070e-01</leafValues></_>
        <_>
          <internalNodes>
            0 -1 237 1.3816243968904018e-02</internalNodes>
          <leafValues>
            9.6207074820995331e-02 -5.8569371700286865e-01</leafValues></_>
        <_>
          <internalNodes>
            0 -1 275 -6.0161925852298737e-02</internalNodes>
          <leafValues>
            8.5808312892913818e-01 -7.1244075894355774e-02</leafValues></_>
        <_>
          <internalNodes>
            0 -1 131 -9.8545366199687123e-05</internalNodes>
          <leafValues>
            2.6991671323776245e-01 -1.5310962498188019e-01</leafValues></_>
        <_>
          <internalNodes>
            0 -1 544 9.4444013666361570e-04</internalNodes>
          <leafValues>
            -2.6118016242980957e-01 1.8696117401123047e-01</leafValues></_>
        <_>
          <internalNodes>
            0 -1 178 5.0522126257419586e-02</internalNodes>
          <leafValues>
            -7.2237119078636169e-02 5.0726038217544556e-01</leafValues></_>
        <_>
          <internalNodes>
            0 -1 84 -8.8857792317867279e-02</internalNodes>
          <leafValues>
            7.0907789468765259e-01 -5.9431117027997971e-02</leafValues></_>
        <_>
          <internalNodes>
            0 -1 477 4.6364810259547085e-05</internalNodes>
          <leafValues>
            -1.7098139226436615e-01 2.3918966948986053e-01</leafValues></_>
        <_>
          <internalNodes>
            0 -1 232 5.5011168122291565e-02</internalNodes>
          <leafValues>
            -7.1028687059879303e-02 7.4067115783691406e-01</leafValues></_>
        <_>
          <internalNodes>
            0 -1 437 -6.5373651683330536e-02</internalNodes>
          <leafValues>
            5.5395376682281494e-01 -5.6415133178234100e-02</leafValues></_>
        <_>
          <internalNodes>
            0 -1 375 -3.1618706881999969e-02</internalNodes>
          <leafValues>
            2.5675556063652039e-01 -1.7952863872051239e-01</leafValues></_>
        <_>
          <internalNodes>
            0 -1 115 -1.8824335932731628e-01</internalNodes>
          <leafValues>
            5.1991361379623413e-01 -1.0177601873874664e-01</leafValues></_>
        <_>
          <internalNodes>
            0 -1 268 2.6358263567090034e-02</internalNodes>
          <leafValues>
            -1.0732426494359970e-01 4.2837056517601013e-01</leafValues></_>
        <_>
          <internalNodes>
            0 -1 330 9.8490603268146515e-03</internalNodes>
          <leafValues>
            9.4781868159770966e-02 -6.6731691360473633e-01</leafValues></_>
        <_>
          <internalNodes>
            0 -1 120 -1.3474338687956333e-02</internalNodes>
          <leafValues>
            -7.9731404781341553e-01 3.9508655667304993e-02</leafValues></_>
        <_>
          <internalNodes>
            0 -1 399 2.0488843321800232e-02</internalNodes>
          <leafValues>
            3.9567951112985611e-02 -7.1591985225677490e-01</leafValues></_>
        <_>
          <internalNodes>
            0 -1 555 8.8009331375360489e-03</internalNodes>
          <leafValues>
            4.7159571200609207e-02 -7.1513855457305908e-01</leafValues></_></weakClassifiers></_>
    <!-- stage 4 -->
    <_>
      <maxWeakCount>29</maxWeakCount>
      <stageThreshold>-1.4393515586853027e+00</stageThreshold>
      <weakClassifiers>
        <_>
          <internalNodes>
            0 -1 156 2.7713969349861145e-02</internalNodes>
          <leafValues>
            -6.0733640193939209e-01 8.3964365720748901e-01</leafValues></_>
        <_>
          <internalNodes>
            0 -1 415 7.5359968468546867e-03</internalNodes>
          <leafValues>
            -1.4374260604381561e-01 7.6151019334793091e-01</leafValues></_>
        <_>
          <internalNodes>
            0 -1 22 -3.9534445852041245e-02</internalNodes>
          <leafValues>
            -7.4935936927795410e-01 1.1160343140363693e-01</leafValues></_>
        <_>
          <internalNodes>
            0 -1 7 -1.7592165619134903e-02</internalNodes>
          <leafValues>
            2.6098355650901794e-01 -2.0176380872726440e-01</leafValues></_>
        <_>
          <internalNodes>
            0 -1 160 6.4137601293623447e-03</internalNodes>
          <leafValues>
            1.0789406299591064e-01 -4.0423151850700378e-01</leafValues></_>
        <_>
          <internalNodes>
            0 -1 434 3.4263237466802821e-05</internalNodes>
          <leafValues>
            -1.5162144601345062e-01 3.0608686804771423e-01</leafValues></_>
        <_>
          <internalNodes>
            0 -1 195 -3.8853538036346436e-01</internalNodes>
          <leafValues>
            6.9347798824310303e-01 -1.2498818337917328e-01</leafValues></_>
        <_>
          <internalNodes>
            0 -1 192 3.6016809754073620e-03</internalNodes>
          <leafValues>
            -6.9317951798439026e-02 4.1791072487831116e-01</leafValues></_>
        <_>
          <internalNodes>
            0 -1 244 -1.7993865907192230e-01</internalNodes>
          <leafValues>
            5.8654123544692993e-01 -1.2720784544944763e-01</leafValues></_>
        <_>
          <internalNodes>
            0 -1 481 1.5513459220528603e-04</internalNodes>
          <leafValues>
            -1.6237886250019073e-01 2.6223111152648926e-01</leafValues></_>
        <_>
          <internalNodes>
            0 -1 171 1.0541186929913238e-04</internalNodes>
          <leafValues>
            -1.3475768268108368e-01 2.9086631536483765e-01</leafValues></_>
        <_>
          <internalNodes>
            0 -1 62 4.1675502434372902e-03</internalNodes>
          <leafValues>
            9.1632619500160217e-02 -4.1067022085189819e-01</leafValues></_>
        <_>
          <internalNodes>
            0 -1 59 8.2326009869575500e-03</internalNodes>
          <leafValues>
            7.0877820253372192e-02 -5.9681874513626099e-01</leafValues></_>
        <_>
          <internalNodes>
            0 -1 524 1.0559575632214546e-02</internalNodes>
          <leafValues>
            -1.6378511488437653e-01 2.7794682979583740e-01</leafValues></_>
        <_>
          <internalNodes>
            0 -1 568 -8.6967451497912407e-03</internalNodes>
          <leafValues>
            -5.5862164497375488e-01 1.0463656485080719e-01</leafValues></_>
        <_>
          <internalNodes>
            0 -1 572 -5.2288295701146126e-03</internalNodes>
          <leafValues>
            -5.4560267925262451e-01 6.6499248147010803e-02</leafValues></_>
        <_>
          <internalNodes>
            0 -1 258 1.0222895070910454e-02</internalNodes>
          <leafValues>
            -8.3426959812641144e-02 5.6328636407852173e-01</leafValues></_>
        <_>
          <internalNodes>
            0 -1 561 5.2175964228808880e-03</internalNodes>
          <leafValues>
            1.1078087240457535e-01 -4.2621481418609619e-01</leafValues></_>
        <_>
          <internalNodes>
            0 -1 71 4.4119864702224731e-02</internalNodes>
          <leafValues>
            -1.5950132906436920e-01 2.8473648428916931e-01</leafValues></_>
        <_>
          <internalNodes>
            0 -1 438 3.4075812436640263e-03</internalNodes>
          <leafValues>
            -1.8860644102096558e-01 2.2408793866634369e-01</leafValues></_>
        <_>
          <internalNodes>
            0 -1 331 2.4271976202726364e-02</internalNodes>
          <leafValues>
            5.1692225039005280e-02 -8.3500283956527710e-01</leafValues></_>
        <_>
          <internalNodes>
            0 -1 66 -3.2874770462512970e-02</internalNodes>
          <leafValues>
            3.0336725711822510e-01 -1.3414865732192993e-01</leafValues></_>
        <_>
          <internalNodes>
            0 -1 166 1.1593417823314667e-01</internalNodes>
          <leafValues>
            -1.4757093787193298e-01 3.0428016185760498e-01</leafValues></_>
        <_>
          <internalNodes>
            0 -1 411 -5.3462482988834381e-02</internalNodes>
          <leafValues>
            7.0722770690917969e-01 -6.8808995187282562e-02</leafValues></_>
        <_>
          <internalNodes>
            0 -1 425 -2.9507091268897057e-02</internalNodes>
          <leafValues>
            5.8106428384780884e-01 -5.0192043185234070e-02</leafValues></_>
        <_>
          <internalNodes>
            0 -1 462 -8.6841017007827759e-02</internalNodes>
          <leafValues>
            5.3479945659637451e-01 -7.3583796620368958e-02</leafValues></_>
        <_>
          <internalNodes>
            0 -1 363 -1.3341277837753296e-02</internalNodes>
          <leafValues>
            2.6638597249984741e-01 -1.6759592294692993e-01</leafValues></_>
        <_>
          <internalNodes>
            0 -1 80 -3.7874169647693634e-03</internalNodes>
          <leafValues>
            -4.9150890111923218e-01 8.8912710547447205e-02</leafValues></_>
        <_>
          <internalNodes>
            0 -1 356 1.3744961470365524e-03</internalNodes>
          <leafValues>
            -1.5504398941993713e-01 2.7190601825714111e-01</leafValues></_></weakClassifiers></_>
    <!-- stage 5 -->
    <_>
      <maxWeakCount>23</maxWeakCount>
      <stageThreshold>-1.3437947034835815e+00</stageThreshold>
      <weakClassifiers>
        <_>
          <internalNodes>
            0 -1 348 3.3833816647529602e-02</internalNodes>
          <leafValues>
            -6.1298376321792603e-01 8.6129754781723022e-01</leafValues></_>
        <_>
          <internalNodes>
            0 -1 31 4.6677559614181519e-02</internalNodes>
          <leafValues>
            -1.4639748632907867e-01 7.3735666275024414e-01</leafValues></_>
        <_>
          <internalNodes>
            0 -1 104 1.0611928999423981e-02</internalNodes>
          <leafValues>
            1.1013801395893097e-01 -6.3686686754226685e-01</leafValues></_>
        <_>
          <internalNodes>
            0 -1 19 -3.6230243742465973e-02</internalNodes>
          <leafValues>
            -8.7913042306900024e-01 4.6648055315017700e-02</leafValues></_>
        <_>
          <internalNodes>
            0 -1 242 9.9239423871040344e-03</internalNodes>
          <leafValues>
            6.1430465430021286e-02 -6.4308470487594604e-01</leafValues></_>
        <_>
          <internalNodes>
            0 -1 528 8.6620021611452103e-03</internalNodes>
          <leafValues>
            -1.4413939416408539e-01 3.3068841695785522e-01</leafValues></_>
        <_>
          <internalNodes>
            0 -1 352 -1.6494317352771759e-01</internalNodes>
          <leafValues>
            5.5517864227294922e-01 -1.1082848906517029e-01</leafValues></_>
        <_>
          <internalNodes>
            0 -1 562 -7.0157339796423912e-03</internalNodes>
          <leafValues>
            -4.6285581588745117e-01 1.1450777202844620e-01</leafValues></_>
        <_>
          <internalNodes>
            0 -1 218 4.3642256059683859e-05</internalNodes>
          <leafValues>
            -1.9080565869808197e-01 2.2067245841026306e-01</leafValues></_>
        <_>
          <internalNodes>
            0 -1 273 1.5717603266239166e-02</internalNodes>
          <leafValues>
            -1.3175025582313538e-01 3.3629089593887329e-01</leafValues></_>
        <_>
          <internalNodes>
            0 -1 191 5.8369259932078421e-05</internalNodes>
          <leafValues>
            -1.5874972939491272e-01 2.4209213256835938e-01</leafValues></_>
        <_>
          <internalNodes>
            0 -1 11 -3.5030394792556763e-02</internalNodes>
          <leafValues>
            3.1798294186592102e-01 -1.3933567702770233e-01</leafValues></_>
        <_>
          <internalNodes>
            0 -1 384 -5.7314813602715731e-05</internalNodes>
          <leafValues>
            2.3029798269271851e-01 -1.8573217093944550e-01</leafValues></_>
        <_>
          <internalNodes>
            0 -1 182 3.1054172723088413e-05</internalNodes>
          <leafValues>
            -1.8827284872531891e-01 2.2056829929351807e-01</leafValues></_>
        <_>
          <internalNodes>
            0 -1 299 -1.1413875967264175e-02</internalNodes>
          <leafValues>
            5.3792065382003784e-01 -8.6320921778678894e-02</leafValues></_>
        <_>
          <internalNodes>
            0 -1 549 -4.4242049625609070e-05</internalNodes>
          <leafValues>
            2.3944208025932312e-01 -1.6190066933631897e-01</leafValues></_>
        <_>
          <internalNodes>
            0 -1 221 6.9126293063163757e-02</internalNodes>
          <leafValues>
            -7.7218621969223022e-02 5.8601939678192139e-01</leafValues></_>
        <_>
          <internalNodes>
            0 -1 454 -4.6604750677943230e-03</internalNodes>
          <leafValues>
            -2.8800892829895020e-01 1.4609849452972412e-01</leafValues></_>
        <_>
          <internalNodes>
            0 -1 82 -1.4346507191658020e-01</internalNodes>
          <leafValues>
            -7.2932255268096924e-01 5.1064778119325638e-02</leafValues></_>
        <_>
          <internalNodes>
            0 -1 100 1.9424117635935545e-03</internalNodes>
          <leafValues>
            5.5004406720399857e-02 -6.0430216789245605e-01</leafValues></_>
        <_>
          <internalNodes>
            0 -1 271 6.1059199273586273e-02</internalNodes>
          <leafValues>
            3.8184422999620438e-02 -9.6797853708267212e-01</leafValues></_>
        <_>
          <internalNodes>
            0 -1 231 5.2037844434380531e-03</internalNodes>
          <leafValues>
            -1.9815908372402191e-01 2.2258116304874420e-01</leafValues></_>
        <_>
          <internalNodes>
            0 -1 306 -2.8150510042905807e-02</internalNodes>
          <leafValues>
            -6.6520047187805176e-01 5.7076729834079742e-02</leafValues></_></weakClassifiers></_>
    <!-- stage 6 -->
    <_>
      <maxWeakCount>29</maxWeakCount>
      <stageThreshold>-1.3928630352020264e+00</stageThreshold>
      <weakClassifiers>
        <_>
          <internalNodes>
            0 -1 376 -1.0840795934200287e-01</internalNodes>
          <leafValues>
            7.7244257926940918e-01 -6.1693030595779419e-01</leafValues></_>
        <_>
          <internalNodes>
            0 -1 108 5.7119816541671753e-02</internalNodes>
          <leafValues>
            -1.8058440089225769e-01 7.2021102905273438e-01</leafValues></_>
        <_>
          <internalNodes>
            0 -1 423 6.1112742871046066e-02</internalNodes>
          <leafValues>
            -1.1707101017236710e-01 5.0822168588638306e-01</leafValues></_>
        <_>
          <internalNodes>
            0 -1 28 5.5970396846532822e-02</internalNodes>
          <leafValues>
            6.1535216867923737e-02 -8.9255237579345703e-01</leafValues></_>
        <_>
          <internalNodes>
            0 -1 15 2.8078147768974304e-01</internalNodes>
          <leafValues>
            -6.8846531212329865e-02 8.3133870363235474e-01</leafValues></_>
        <_>
          <internalNodes>
            0 -1 527 7.5551778078079224e-02</internalNodes>
          <leafValues>
            9.0286232531070709e-02 -7.4598783254623413e-01</leafValues></_>
        <_>
          <internalNodes>
            0 -1 509 6.3942773267626762e-03</internalNodes>
          <leafValues>
            -1.8769589066505432e-01 2.6743340492248535e-01</leafValues></_>
        <_>
          <internalNodes>
            0 -1 359 2.7907336130738258e-02</internalNodes>
          <leafValues>
            -1.8276360630989075e-01 3.0810973048210144e-01</leafValues></_>
        <_>
          <internalNodes>
            0 -1 14 -3.2215677201747894e-02</internalNodes>
          <leafValues>
            2.4051712453365326e-01 -1.7762385308742523e-01</leafValues></_>
        <_>
          <internalNodes>
            0 -1 151 1.1844007298350334e-02</internalNodes>
          <leafValues>
            -4.2433094233274460e-02 6.7099934816360474e-01</leafValues></_>
        <_>
          <internalNodes>
            0 -1 283 -7.7148377895355225e-02</internalNodes>
          <leafValues>
            -4.5413684844970703e-01 1.0029815882444382e-01</leafValues></_>
        <_>
          <internalNodes>
            0 -1 1 1.9379813224077225e-02</internalNodes>
          <leafValues>
            7.8664541244506836e-02 -8.6052763462066650e-01</leafValues></_>
        <_>
          <internalNodes>
            0 -1 323 3.0723081901669502e-02</internalNodes>
          <leafValues>
            -8.4746904671192169e-02 6.4591085910797119e-01</leafValues></_>
        <_>
          <internalNodes>
            0 -1 347 7.0115504786372185e-03</internalNodes>
          <leafValues>
            -7.3441170156002045e-02 4.4822713732719421e-01</leafValues></_>
        <_>
          <internalNodes>
            0 -1 336 -2.2909611463546753e-02</internalNodes>
          <leafValues>
            4.4053155183792114e-01 -1.2428380548954010e-01</leafValues></_>
        <_>
          <internalNodes>
            0 -1 210 1.5752559993416071e-03</internalNodes>
          <leafValues>
            -1.1762431263923645e-01 2.9070597887039185e-01</leafValues></_>
        <_>
          <internalNodes>
            0 -1 248 -2.8586065769195557e-01</internalNodes>
          <leafValues>
            6.3673293590545654e-01 -5.2377451211214066e-02</leafValues></_>
        <_>
          <internalNodes>
            0 -1 565 -8.7099913507699966e-03</internalNodes>
          <leafValues>
            -5.0445854663848877e-01 9.2310622334480286e-02</leafValues></_>
        <_>
          <internalNodes>
            0 -1 40 1.8741654232144356e-02</internalNodes>
          <leafValues>
            7.9534925520420074e-02 -4.3929091095924377e-01</leafValues></_>
        <_>
          <internalNodes>
            0 -1 93 4.9287446017842740e-05</internalNodes>
          <leafValues>
            -1.8410022556781769e-01 2.0482048392295837e-01</leafValues></_>
        <_>
          <internalNodes>
            0 -1 382 3.4652344766072929e-05</internalNodes>
          <leafValues>
            -1.7785088717937469e-01 2.1069212257862091e-01</leafValues></_>
        <_>
          <internalNodes>
            0 -1 96 -1.5716966241598129e-02</internalNodes>
          <leafValues>
            -5.6947398185729980e-01 7.6507680118083954e-02</leafValues></_>
        <_>
          <internalNodes>
            0 -1 485 2.0887920982204378e-04</internalNodes>
          <leafValues>
            -1.7294862866401672e-01 2.0059506595134735e-01</leafValues></_>
        <_>
          <internalNodes>
            0 -1 117 2.0343631505966187e-02</internalNodes>
          <leafValues>
            5.7003088295459747e-02 -7.9366749525070190e-01</leafValues></_>
        <_>
          <internalNodes>
            0 -1 5 -2.7782004326581955e-03</internalNodes>
          <leafValues>
            -4.1623315215110779e-01 7.3537871241569519e-02</leafValues></_>
        <_>
          <internalNodes>
            0 -1 381 -4.2275307350791991e-05</internalNodes>
          <leafValues>
            1.8852588534355164e-01 -1.8277710676193237e-01</leafValues></_>
        <_>
          <internalNodes>
            0 -1 513 -1.3791986566502601e-04</internalNodes>
          <leafValues>
            2.3314349353313446e-01 -1.5357747673988342e-01</leafValues></_>
        <_>
          <internalNodes>
            0 -1 255 -2.1843325346708298e-02</internalNodes>
          <leafValues>
            8.2059293985366821e-01 -4.0937256067991257e-02</leafValues></_>
        <_>
          <internalNodes>
            0 -1 144 7.3849866166710854e-03</internalNodes>
          <leafValues>
            -1.1474858969449997e-01 2.9161256551742554e-01</leafValues></_></weakClassifiers></_>
    <!-- stage 7 -->
    <_>
      <maxWeakCount>31</maxWeakCount>
      <stageThreshold>-1.4621824026107788e+00</stageThreshold>
      <weakClassifiers>
        <_>
          <internalNodes>
            0 -1 102 3.0639989301562309e-02</internalNodes>
          <leafValues>
            -6.1632311344146729e-01 8.2826089859008789e-01</leafValues></_>
        <_>
          <internalNodes>
            0 -1 353 2.7880478650331497e-02</internalNodes>
          <leafValues>
            -1.7264464497566223e-01 6.7920762300491333e-01</leafValues></_>
        <_>
          <internalNodes>
            0 -1 8 5.4139241576194763e-02</internalNodes>
          <leafValues>
            7.8576527535915375e-02 -9.8415994644165039e-01</leafValues></_>
        <_>
          <internalNodes>
            0 -1 43 -5.1496429368853569e-03</internalNodes>
          <leafValues>
            2.6268500089645386e-01 -2.2659750282764435e-01</leafValues></_>
        <_>
          <internalNodes>
            0 -1 327 1.0212241113185883e-01</internalNodes>
          <leafValues>
            -9.7981095314025879e-02 4.7368976473808289e-01</leafValues></_>
        <_>
          <internalNodes>
            0 -1 278 4.3991225538775325e-05</internalNodes>
          <leafValues>
            -2.0775629580020905e-01 2.2311082482337952e-01</leafValues></_>
        <_>
          <internalNodes>
            0 -1 240 -2.0086434483528137e-01</internalNodes>
          <leafValues>
            4.0313813090324402e-01 -1.2237577885389328e-01</leafValues></_>
        <_>
          <internalNodes>
            0 -1 571 9.4482004642486572e-03</internalNodes>
          <leafValues>
            6.7627318203449249e-02 -5.9035545587539673e-01</leafValues></_>
        <_>
          <internalNodes>
            0 -1 413 -3.7936937587801367e-05</internalNodes>
          <leafValues>
            2.1068829298019409e-01 -1.8273168802261353e-01</leafValues></_>
        <_>
          <internalNodes>
            0 -1 50 2.6390703395009041e-02</internalNodes>
          <leafValues>
            3.5284548997879028e-02 -7.3088312149047852e-01</leafValues></_>
        <_>
          <internalNodes>
            0 -1 314 1.4665254950523376e-01</internalNodes>
          <leafValues>
            -5.4932616651058197e-02 8.0559223890304565e-01</leafValues></_>
        <_>
          <internalNodes>
            0 -1 19 -3.6185659468173981e-02</internalNodes>
          <leafValues>
            -8.7124097347259521e-01 5.9339422732591629e-02</leafValues></_>
        <_>
          <internalNodes>
            0 -1 510 -9.5054192934185266e-04</internalNodes>
          <leafValues>
            3.8894534111022949e-01 -1.0356675833463669e-01</leafValues></_>
        <_>
          <internalNodes>
            0 -1 395 4.5861819671699777e-05</internalNodes>
          <leafValues>
            -1.5317198634147644e-01 2.2521533071994781e-01</leafValues></_>
        <_>
          <internalNodes>
            0 -1 91 1.4565391466021538e-02</internalNodes>
          <leafValues>
            -1.8012468516826630e-01 2.0240509510040283e-01</leafValues></_>
        <_>
          <internalNodes>
            0 -1 196 4.4123642146587372e-02</internalNodes>
          <leafValues>
            -1.0125344246625900e-01 3.4339329600334167e-01</leafValues></_>
        <_>
          <internalNodes>
            0 -1 135 -6.2980279326438904e-02</internalNodes>
          <leafValues>
            6.7267560958862305e-01 -7.2762317955493927e-02</leafValues></_>
        <_>
          <internalNodes>
            0 -1 86 5.4518553952220827e-05</internalNodes>
          <leafValues>
            -1.5057872235774994e-01 2.2937647998332977e-01</leafValues></_>
        <_>
          <internalNodes>
            0 -1 419 1.6900265109143220e-05</internalNodes>
          <leafValues>
            -1.6485291719436646e-01 2.0658473670482635e-01</leafValues></_>
        <_>
          <internalNodes>
            0 -1 315 4.7433597501367331e-05</internalNodes>
          <leafValues>
            -1.6232186555862427e-01 2.0605771243572235e-01</leafValues></_>
        <_>
          <internalNodes>
            0 -1 394 3.4568281989777461e-05</internalNodes>
          <leafValues>
            -1.6666060686111450e-01 2.0489567518234253e-01</leafValues></_>
        <_>
          <internalNodes>
            0 -1 475 2.2474920377135277e-02</internalNodes>
          <leafValues>
            3.5148274153470993e-02 -7.1342307329177856e-01</leafValues></_>
        <_>
          <internalNodes>
            0 -1 407 3.3014873042702675e-03</internalNodes>
          <leafValues>
            -1.2543575465679169e-01 2.8258484601974487e-01</leafValues></_>
        <_>
          <internalNodes>
            0 -1 500 -4.4392989948391914e-03</internalNodes>
          <leafValues>
            -5.3319460153579712e-01 7.5115844607353210e-02</leafValues></_>
        <_>
          <internalNodes>
            0 -1 451 -1.9270348275313154e-05</internalNodes>
          <leafValues>
            1.9215616583824158e-01 -1.9507075846195221e-01</leafValues></_>
        <_>
          <internalNodes>
            0 -1 536 5.4637627908959985e-04</internalNodes>
          <leafValues>
            -1.6519080102443695e-01 2.5175198912620544e-01</leafValues></_>
        <_>
          <internalNodes>
            0 -1 267 -1.0718059539794922e-01</internalNodes>
          <leafValues>
            5.9446954727172852e-01 -5.4941315203905106e-02</leafValues></_>
        <_>
          <internalNodes>
            0 -1 380 5.4104521870613098e-02</internalNodes>
          <leafValues>
            -8.0766499042510986e-02 4.3721076846122742e-01</leafValues></_>
        <_>
          <internalNodes>
            0 -1 457 -4.1252098977565765e-02</internalNodes>
          <leafValues>
            5.1477885246276855e-01 -8.7092280387878418e-02</leafValues></_>
        <_>
          <internalNodes>
            0 -1 501 7.2857169434428215e-03</internalNodes>
          <leafValues>
            5.9358596801757813e-02 -6.8526190519332886e-01</leafValues></_>
        <_>
          <internalNodes>
            0 -1 427 2.0547060295939445e-02</internalNodes>
          <leafValues>
            -9.8491460084915161e-02 4.0135705471038818e-01</leafValues></_></weakClassifiers></_>
    <!-- stage 8 -->
    <_>
      <maxWeakCount>30</maxWeakCount>
      <stageThreshold>-1.3957549333572388e+00</stageThreshold>
      <weakClassifiers>
        <_>
          <internalNodes>
            0 -1 109 2.9953084886074066e-02</internalNodes>
          <leafValues>
            -6.2452107667922974e-01 8.0590718984603882e-01</leafValues></_>
        <_>
          <internalNodes>
            0 -1 526 -2.0834745839238167e-02</internalNodes>
          <leafValues>
            6.5033018589019775e-01 -1.7725056409835815e-01</leafValues></_>
        <_>
          <internalNodes>
            0 -1 18 3.5962022840976715e-02</internalNodes>
          <leafValues>
            1.0621149837970734e-01 -5.9915494918823242e-01</leafValues></_>
        <_>
          <internalNodes>
            0 -1 65 -3.5003222525119781e-02</internalNodes>
          <leafValues>
            3.4673511981964111e-01 -1.4119847118854523e-01</leafValues></_>
        <_>
          <internalNodes>
            0 -1 138 2.0000714808702469e-02</internalNodes>
          <leafValues>
            -1.5674734115600586e-01 2.9132416844367981e-01</leafValues></_>
        <_>
          <internalNodes>
            0 -1 204 2.3039790987968445e-01</internalNodes>
          <leafValues>
            -1.2561681866645813e-01 4.9836236238479614e-01</leafValues></_>
        <_>
          <internalNodes>
            0 -1 27 4.6253990381956100e-02</internalNodes>
          <leafValues>
            -5.7262856513261795e-02 6.1193251609802246e-01</leafValues></_>
        <_>
          <internalNodes>
            0 -1 38 -2.3680582642555237e-01</internalNodes>
          <leafValues>
            4.2322540283203125e-01 -1.3420511782169342e-01</leafValues></_>
        <_>
          <internalNodes>
            0 -1 337 5.9856280684471130e-02</internalNodes>
          <leafValues>
            -1.2958610057830811e-01 3.5076779127120972e-01</leafValues></_>
        <_>
          <internalNodes>
            0 -1 466 1.4386386610567570e-02</internalNodes>
          <leafValues>
            -1.2270251661539078e-01 3.8081359863281250e-01</leafValues></_>
        <_>
          <internalNodes>
            0 -1 134 9.2482626438140869e-02</internalNodes>
          <leafValues>
            -5.4570894688367844e-02 6.2579602003097534e-01</leafValues></_>
        <_>
          <internalNodes>
            0 -1 290 5.7263905182480812e-03</internalNodes>
          <leafValues>
            -1.3107497990131378e-01 2.7328288555145264e-01</leafValues></_>
        <_>
          <internalNodes>
            0 -1 351 -1.2008076161146164e-01</internalNodes>
          <leafValues>
            7.3996126651763916e-01 -3.4391999244689941e-02</leafValues></_>
        <_>
          <internalNodes>
            0 -1 517 -1.2140300124883652e-02</internalNodes>
          <leafValues>
            1.8442802131175995e-01 -2.3346425592899323e-01</leafValues></_>
        <_>
          <internalNodes>
            0 -1 442 3.3326570410281420e-03</internalNodes>
          <leafValues>
            -1.4569917321205139e-01 2.5837123394012451e-01</leafValues></_>
        <_>
          <internalNodes>
            0 -1 418 4.4871963560581207e-02</internalNodes>
          <leafValues>
            -1.1780503392219543e-01 3.3476069569587708e-01</leafValues></_>
        <_>
          <internalNodes>
            0 -1 239 -5.2789036184549332e-02</internalNodes>
          <leafValues>
            6.3540983200073242e-01 -6.8748816847801208e-02</leafValues></_>
        <_>
          <internalNodes>
            0 -1 482 8.0355135723948479e-03</internalNodes>
          <leafValues>
            9.2788018286228180e-02 -6.1016410589218140e-01</leafValues></_>
        <_>
          <internalNodes>
            0 -1 548 2.5090005248785019e-02</internalNodes>
          <leafValues>
            1.8495889380574226e-02 -8.8799476623535156e-01</leafValues></_>
        <_>
          <internalNodes>
            0 -1 257 2.2290871129371226e-04</internalNodes>
          <leafValues>
            -1.5538501739501953e-01 2.1600802242755890e-01</leafValues></_>
        <_>
          <internalNodes>
            0 -1 470 4.8370538279414177e-03</internalNodes>
          <leafValues>
            7.8186348080635071e-02 -5.3075182437896729e-01</leafValues></_>
        <_>
          <internalNodes>
            0 -1 75 3.0970364809036255e-02</internalNodes>
          <leafValues>
            4.3636702001094818e-02 -6.0604768991470337e-01</leafValues></_>
        <_>
          <internalNodes>
            0 -1 35 -9.0085873380303383e-03</internalNodes>
          <leafValues>
            -5.0491291284561157e-01 5.7767458260059357e-02</leafValues></_>
        <_>
          <internalNodes>
            0 -1 469 -7.1370452642440796e-03</internalNodes>
          <leafValues>
            -9.6289962530136108e-01 2.4134803563356400e-02</leafValues></_>
        <_>
          <internalNodes>
            0 -1 491 4.9211470468435436e-05</internalNodes>
          <leafValues>
            -1.6282461583614349e-01 1.8409132957458496e-01</leafValues></_>
        <_>
          <internalNodes>
            0 -1 491 -4.4479915231931955e-05</internalNodes>
          <leafValues>
            2.0904366672039032e-01 -1.8134061992168427e-01</leafValues></_>
        <_>
          <internalNodes>
            0 -1 564 -1.3102987781167030e-02</internalNodes>
          <leafValues>
            -5.1597058773040771e-01 7.6161168515682220e-02</leafValues></_>
        <_>
          <internalNodes>
            0 -1 541 3.5979403037345037e-05</internalNodes>
          <leafValues>
            -1.8155838549137115e-01 1.7507937550544739e-01</leafValues></_>
        <_>
          <internalNodes>
            0 -1 251 5.1284927874803543e-02</internalNodes>
          <leafValues>
            -1.5228906273841858e-01 2.0850749313831329e-01</leafValues></_>
        <_>
          <internalNodes>
            0 -1 556 -8.7869595736265182e-03</internalNodes>
          <leafValues>
            -4.6099033951759338e-01 7.6750956475734711e-02</leafValues></_></weakClassifiers></_>
    <!-- stage 9 -->
    <_>
      <maxWeakCount>32</maxWeakCount>
      <stageThreshold>-1.4142931699752808e+00</stageThreshold>
      <weakClassifiers>
        <_>
          <internalNodes>
            0 -1 433 1.2748497724533081e-01</internalNodes>
          <leafValues>
            -6.2570559978485107e-01 7.4245470762252808e-01</leafValues></_>
        <_>
          <internalNodes>
            0 -1 27 4.7725953161716461e-02</internalNodes>
          <leafValues>
            -1.9732667505741119e-01 6.9748395681381226e-01</leafValues></_>
        <_>
          <internalNodes>
            0 -1 388 -6.8575449287891388e-02</internalNodes>
          <leafValues>
            4.5357367396354675e-01 -8.9742235839366913e-02</leafValues></_>
        <_>
          <internalNodes>
            0 -1 304 -3.0106171965599060e-02</internalNodes>
          <leafValues>
            7.0748603343963623e-01 -7.5579315423965454e-02</leafValues></_>
        <_>
          <internalNodes>
            0 -1 372 -4.0740156546235085e-03</internalNodes>
          <leafValues>
            2.1672451496124268e-01 -3.6093822121620178e-01</leafValues></_>
        <_>
          <internalNodes>
            0 -1 13 5.6340675801038742e-02</internalNodes>
          <leafValues>
            6.3793264329433441e-02 -9.1393899917602539e-01</leafValues></_>
        <_>
          <internalNodes>
            0 -1 158 5.0236634910106659e-02</internalNodes>
          <leafValues>
            -3.1162599101662636e-02 9.1348934173583984e-01</leafValues></_>
        <_>
          <internalNodes>
            0 -1 305 -1.1601852253079414e-02</internalNodes>
          <leafValues>
            -4.8860397934913635e-01 1.0420458018779755e-01</leafValues></_>
        <_>
          <internalNodes>
            0 -1 434 1.5555163845419884e-03</internalNodes>
          <leafValues>
            -4.6091265976428986e-02 6.0029524564743042e-01</leafValues></_>
        <_>
          <internalNodes>
            0 -1 539 2.8824649751186371e-02</internalNodes>
          <leafValues>
            5.4868806153535843e-02 -6.0399407148361206e-01</leafValues></_>
        <_>
          <internalNodes>
            0 -1 523 6.9969240576028824e-03</internalNodes>
          <leafValues>
            -1.6226933896541595e-01 2.4119170010089874e-01</leafValues></_>
        <_>
          <internalNodes>
            0 -1 357 2.2899743169546127e-02</internalNodes>
          <leafValues>
            -1.5180243551731110e-01 2.9967182874679565e-01</leafValues></_>
        <_>
          <internalNodes>
            0 -1 368 1.0713864117860794e-02</internalNodes>
          <leafValues>
            6.3778594136238098e-02 -7.2802233695983887e-01</leafValues></_>
        <_>
          <internalNodes>
            0 -1 317 4.2705854866653681e-05</internalNodes>
          <leafValues>
            -2.1019157767295837e-01 1.8971486389636993e-01</leafValues></_>
        <_>
          <internalNodes>
            0 -1 286 6.0776602476835251e-03</internalNodes>
          <leafValues>
            1.0369691997766495e-01 -5.4181373119354248e-01</leafValues></_>
        <_>
          <internalNodes>
            0 -1 358 -1.8887314945459366e-02</internalNodes>
          <leafValues>
            2.9510104656219482e-01 -1.4999909698963165e-01</leafValues></_>
        <_>
          <internalNodes>
            0 -1 321 1.7483949661254883e-02</internalNodes>
          <leafValues>
            -1.4489111304283142e-01 2.6858639717102051e-01</leafValues></_>
        <_>
          <internalNodes>
            0 -1 563 7.4790921062231064e-03</internalNodes>
          <leafValues>
            8.1528924405574799e-02 -5.9785956144332886e-01</leafValues></_>
        <_>
          <internalNodes>
            0 -1 205 1.3367340900003910e-02</internalNodes>
          <leafValues>
            -1.4551623165607452e-01 2.7632483839988708e-01</leafValues></_>
        <_>
          <internalNodes>
            0 -1 389 -5.4518735851161182e-05</internalNodes>
          <leafValues>
            2.1484602987766266e-01 -1.6662466526031494e-01</leafValues></_>
        <_>
          <internalNodes>
            0 -1 349 -4.2340776417404413e-05</internalNodes>
          <leafValues>
            2.0407237112522125e-01 -1.7260037362575531e-01</leafValues></_>
        <_>
          <internalNodes>
            0 -1 417 3.7105679512023926e-03</internalNodes>
          <leafValues>
            8.3004593849182129e-02 -4.1775175929069519e-01</leafValues></_>
        <_>
          <internalNodes>
            0 -1 507 6.0771300923079252e-04</internalNodes>
          <leafValues>
            -1.6603247821331024e-01 2.2846919298171997e-01</leafValues></_>
        <_>
          <internalNodes>
            0 -1 226 -6.5233953297138214e-02</internalNodes>
          <leafValues>
            6.2945699691772461e-01 -5.7913854718208313e-02</leafValues></_>
        <_>
          <internalNodes>
            0 -1 170 4.2374336044304073e-04</internalNodes>
          <leafValues>
            -2.0427696406841278e-01 2.0131418108940125e-01</leafValues></_>
        <_>
          <internalNodes>
            0 -1 342 -5.6555517017841339e-02</internalNodes>
          <leafValues>
            3.3681178092956543e-01 -1.0413995385169983e-01</leafValues></_>
        <_>
          <internalNodes>
            0 -1 72 -1.7311131954193115e-01</internalNodes>
          <leafValues>
            -6.7276287078857422e-01 6.1651017516851425e-02</leafValues></_>
        <_>
          <internalNodes>
            0 -1 511 8.5539626888930798e-04</internalNodes>
          <leafValues>
            -1.2861722707748413e-01 2.6501831412315369e-01</leafValues></_>
        <_>
          <internalNodes>
            0 -1 316 -3.7711501121520996e-02</internalNodes>
          <leafValues>
            6.1454284191131592e-01 -5.4679926484823227e-02</leafValues></_>
        <_>
          <internalNodes>
            0 -1 284 2.1479096263647079e-02</internalNodes>
          <leafValues>
            -1.5744331479072571e-01 2.5156375765800476e-01</leafValues></_>
        <_>
          <internalNodes>
            0 -1 20 7.8487858176231384e-02</internalNodes>
          <leafValues>
            4.0558155626058578e-02 -7.6300090551376343e-01</leafValues></_>
        <_>
          <internalNodes>
            0 -1 465 5.1187253120588139e-05</internalNodes>
          <leafValues>
            -1.9598922133445740e-01 1.7934490740299225e-01</leafValues></_></weakClassifiers></_>
    <!-- stage 10 -->
    <_>
      <maxWeakCount>33</maxWeakCount>
      <stageThreshold>-1.3903311491012573e+00</stageThreshold>
      <weakClassifiers>
        <_>
          <internalNodes>
            0 -1 121 7.5946241617202759e-02</internalNodes>
          <leafValues>
            -6.2196677923202515e-01 7.9957807064056396e-01</leafValues></_>
        <_>
          <internalNodes>
            0 -1 456 -5.2530504763126373e-03</internalNodes>
          <leafValues>
            6.6835004091262817e-01 -1.8181391060352325e-01</leafValues></_>
        <_>
          <internalNodes>
            0 -1 390 -1.0667353868484497e-02</internalNodes>
          <leafValues>
            2.9253718256950378e-01 -1.5359525382518768e-01</leafValues></_>
        <_>
          <internalNodes>
            0 -1 55 -2.5519516319036484e-02</internalNodes>
          <leafValues>
            3.1517887115478516e-01 -1.9350330531597137e-01</leafValues></_>
        <_>
          <internalNodes>
            0 -1 235 1.7844635993242264e-02</internalNodes>
          <leafValues>
            -7.3504030704498291e-02 6.4000564813613892e-01</leafValues></_>
        <_>
          <internalNodes>
            0 -1 187 9.8243385553359985e-02</internalNodes>
          <leafValues>
            8.5876166820526123e-02 -8.5037469863891602e-01</leafValues></_>
        <_>
          <internalNodes>
            0 -1 264 -1.7836207151412964e-01</internalNodes>
          <leafValues>
            8.3188551664352417e-01 -3.7626802921295166e-02</leafValues></_>
        <_>
          <internalNodes>
            0 -1 566 1.4961592853069305e-02</internalNodes>
          <leafValues>
            8.1456281244754791e-02 -5.8698159456253052e-01</leafValues></_>
        <_>
          <internalNodes>
            0 -1 529 -1.7128366976976395e-02</internalNodes>
          <leafValues>
            5.5441683530807495e-01 -3.9540231227874756e-02</leafValues></_>
        <_>
          <internalNodes>
            0 -1 508 9.6838818863034248e-03</internalNodes>
          <leafValues>
            -2.2759445011615753e-01 2.1225591003894806e-01</leafValues></_>
        <_>
          <internalNodes>
            0 -1 24 3.5062499810010195e-03</internalNodes>
          <leafValues>
            7.2625495493412018e-02 -5.0594097375869751e-01</leafValues></_>
        <_>
          <internalNodes>
            0 -1 270 1.5702137351036072e-01</internalNodes>
          <leafValues>
            -9.7714252769947052e-02 3.9008647203445435e-01</leafValues></_>
        <_>
          <internalNodes>
            0 -1 57 -1.8248416483402252e-01</internalNodes>
          <leafValues>
            3.2320472598075867e-01 -1.3515326380729675e-01</leafValues></_>
        <_>
          <internalNodes>
            0 -1 45 2.9369723051786423e-02</internalNodes>
          <leafValues>
            -8.0759592354297638e-02 4.6871221065521240e-01</leafValues></_>
        <_>
          <internalNodes>
            0 -1 3 -5.6550772860646248e-03</internalNodes>
          <leafValues>
            -4.7385007143020630e-01 7.7997498214244843e-02</leafValues></_>
        <_>
          <internalNodes>
            0 -1 499 -7.4993777088820934e-03</internalNodes>
          <leafValues>
            3.3442473411560059e-01 -9.2053100466728210e-02</leafValues></_>
        <_>
          <internalNodes>
            0 -1 234 6.5364791080355644e-03</internalNodes>
          <leafValues>
            -3.1633052974939346e-02 5.7979893684387207e-01</leafValues></_>
        <_>
          <internalNodes>
            0 -1 157 -6.2469955533742905e-02</internalNodes>
          <leafValues>
            2.2581395506858826e-01 -1.8653905391693115e-01</leafValues></_>
        <_>
          <internalNodes>
            0 -1 249 5.7350806891918182e-03</internalNodes>
          <leafValues>
            -1.2548372149467468e-01 2.9195055365562439e-01</leafValues></_>
        <_>
          <internalNodes>
            0 -1 279 4.6540163457393646e-03</internalNodes>
          <leafValues>
            5.9744052588939667e-02 -7.7168411016464233e-01</leafValues></_>
        <_>
          <internalNodes>
            0 -1 343 -4.4048418203601614e-05</internalNodes>
          <leafValues>
            1.8022806942462921e-01 -1.9725833833217621e-01</leafValues></_>
        <_>
          <internalNodes>
            0 -1 129 1.5129338949918747e-02</internalNodes>
          <leafValues>
            -1.4155641198158264e-01 2.3585794866085052e-01</leafValues></_>
        <_>
          <internalNodes>
            0 -1 285 -2.7970530092716217e-02</internalNodes>
          <leafValues>
            3.6111032962799072e-01 -1.1209878325462341e-01</leafValues></_>
        <_>
          <internalNodes>
            0 -1 324 3.2813660800457001e-02</internalNodes>
          <leafValues>
            -2.7092879638075829e-02 7.2658848762512207e-01</leafValues></_>
        <_>
          <internalNodes>
            0 -1 543 -5.2268092986196280e-05</internalNodes>
          <leafValues>
            2.0003224909305573e-01 -1.5583075582981110e-01</leafValues></_>
        <_>
          <internalNodes>
            0 -1 230 -6.2342938035726547e-03</internalNodes>
          <leafValues>
            3.0786007642745972e-01 -1.0785561054944992e-01</leafValues></_>
        <_>
          <internalNodes>
            0 -1 302 -4.7873985022306442e-03</internalNodes>
          <leafValues>
            -8.2223969697952271e-01 4.9276154488325119e-02</leafValues></_>
        <_>
          <internalNodes>
            0 -1 274 6.4707502722740173e-02</internalNodes>
          <leafValues>
            -1.1983644962310791e-01 2.9155495762825012e-01</leafValues></_>
        <_>
          <internalNodes>
            0 -1 558 -6.9633927196264267e-03</internalNodes>
          <leafValues>
            -5.9092170000076294e-01 6.0997679829597473e-02</leafValues></_>
        <_>
          <internalNodes>
            0 -1 250 7.0567303337156773e-03</internalNodes>
          <leafValues>
            -1.6817475855350494e-01 2.3149698972702026e-01</leafValues></_>
        <_>
          <internalNodes>
            0 -1 259 5.5809542536735535e-02</internalNodes>
          <leafValues>
            -1.0672018676996231e-01 3.0447438359260559e-01</leafValues></_>
        <_>
          <internalNodes>
            0 -1 201 6.3011636957526207e-03</internalNodes>
          <leafValues>
            -1.2011599540710449e-01 2.7637097239494324e-01</leafValues></_>
        <_>
          <internalNodes>
            0 -1 379 1.2309607700444758e-04</internalNodes>
          <leafValues>
            -1.6226409375667572e-01 2.1050536632537842e-01</leafValues></_></weakClassifiers></_>
    <!-- stage 11 -->
    <_>
      <maxWeakCount>35</maxWeakCount>
      <stageThreshold>-1.4086477756500244e+00</stageThreshold>
      <weakClassifiers>
        <_>
          <internalNodes>
            0 -1 113 5.9999193996191025e-02</internalNodes>
          <leafValues>
            -6.3870966434478760e-01 8.0452674627304077e-01</leafValues></_>
        <_>
          <internalNodes>
            0 -1 377 -8.3707503974437714e-02</internalNodes>
          <leafValues>
            6.3262945413589478e-01 -1.7636322975158691e-01</leafValues></_>
        <_>
          <internalNodes>
            0 -1 79 -2.1825045347213745e-02</internalNodes>
          <leafValues>
            3.4774592518806458e-01 -1.2355662137269974e-01</leafValues></_>
        <_>
          <internalNodes>
            0 -1 100 3.7061478942632675e-03</internalNodes>
          <leafValues>
            3.3820930868387222e-02 -9.4986158609390259e-01</leafValues></_>
        <_>
          <internalNodes>
            0 -1 21 -9.2539027333259583e-02</internalNodes>
          <leafValues>
            -9.4101327657699585e-01 2.7644310146570206e-02</leafValues></_>
        <_>
          <internalNodes>
            0 -1 431 3.2579705584794283e-03</internalNodes>
          <leafValues>
            -7.6296620070934296e-02 6.3824230432510376e-01</leafValues></_>
        <_>
          <internalNodes>
            0 -1 160 2.5834746658802032e-02</internalNodes>
          <leafValues>
            6.7469425499439240e-02 -6.5114492177963257e-01</leafValues></_>
        <_>
          <internalNodes>
            0 -1 504 9.9088102579116821e-03</internalNodes>
          <leafValues>
            -2.2902600467205048e-02 6.8168932199478149e-01</leafValues></_>
        <_>
          <internalNodes>
            0 -1 518 -1.7901040613651276e-02</internalNodes>
          <leafValues>
            1.7770768702030182e-01 -2.4912160634994507e-01</leafValues></_>
        <_>
          <internalNodes>
            0 -1 459 7.6745867729187012e-02</internalNodes>
          <leafValues>
            -3.5317510366439819e-02 4.9244546890258789e-01</leafValues></_>
        <_>
          <internalNodes>
            0 -1 326 -5.2280105650424957e-02</internalNodes>
          <leafValues>
            3.0715599656105042e-01 -1.3047285377979279e-01</leafValues></_>
        <_>
          <internalNodes>
            0 -1 301 -4.9890242516994476e-03</internalNodes>
          <leafValues>
            -5.9451377391815186e-01 4.8116888850927353e-02</leafValues></_>
        <_>
          <internalNodes>
            0 -1 452 4.8329732380807400e-03</internalNodes>
          <leafValues>
            4.6119827777147293e-02 -6.5217643976211548e-01</leafValues></_>
        <_>
          <internalNodes>
            0 -1 30 7.8701086342334747e-02</internalNodes>
          <leafValues>
            -9.1730289161205292e-02 3.3168181777000427e-01</leafValues></_>
        <_>
          <internalNodes>
            0 -1 63 -1.2822572141885757e-02</internalNodes>
          <leafValues>
            -5.9892040491104126e-01 5.3454339504241943e-02</leafValues></_>
        <_>
          <internalNodes>
            0 -1 410 -3.6643877625465393e-02</internalNodes>
          <leafValues>
            2.4548768997192383e-01 -1.2071190774440765e-01</leafValues></_>
        <_>
          <internalNodes>
            0 -1 37 -1.5710207819938660e-01</internalNodes>
          <leafValues>
            5.7571446895599365e-01 -6.5347038209438324e-02</leafValues></_>
        <_>
          <internalNodes>
            0 -1 361 6.0621099546551704e-03</internalNodes>
          <leafValues>
            -1.3119032979011536e-01 2.3465040326118469e-01</leafValues></_>
        <_>
          <internalNodes>
            0 -1 458 1.5875689685344696e-02</internalNodes>
          <leafValues>
            -1.3067837059497833e-01 2.2041526436805725e-01</leafValues></_>
        <_>
          <internalNodes>
            0 -1 525 1.6994386911392212e-02</internalNodes>
          <leafValues>
            3.6022298038005829e-02 -5.9696608781814575e-01</leafValues></_>
        <_>
          <internalNodes>
            0 -1 291 -1.4803515747189522e-02</internalNodes>
          <leafValues>
            4.7641554474830627e-01 -6.2890417873859406e-02</leafValues></_>
        <_>
          <internalNodes>
            0 -1 253 -1.9001347245648503e-03</internalNodes>
          <leafValues>
            -3.9864504337310791e-01 1.0112772881984711e-01</leafValues></_>
        <_>
          <internalNodes>
            0 -1 136 2.1986657520756125e-04</internalNodes>
          <leafValues>
            -1.8322342634201050e-01 1.5980219841003418e-01</leafValues></_>
        <_>
          <internalNodes>
            0 -1 145 4.5133005187381059e-05</internalNodes>
          <leafValues>
            -1.4903031289577484e-01 1.8672911822795868e-01</leafValues></_>
        <_>
          <internalNodes>
            0 -1 51 -6.7880996502935886e-03</internalNodes>
          <leafValues>
            1.8369396030902863e-01 -1.6288134455680847e-01</leafValues></_>
        <_>
          <internalNodes>
            0 -1 118 1.0183751583099365e-02</internalNodes>
          <leafValues>
            -3.5560496151447296e-02 6.2639975547790527e-01</leafValues></_>
        <_>
          <internalNodes>
            0 -1 103 -5.0265314057469368e-03</internalNodes>
          <leafValues>
            -3.8517734408378601e-01 7.0449814200401306e-02</leafValues></_>
        <_>
          <internalNodes>
            0 -1 175 9.6884806407615542e-04</internalNodes>
          <leafValues>
            -9.6016883850097656e-02 3.1739601492881775e-01</leafValues></_>
        <_>
          <internalNodes>
            0 -1 429 6.9575784727931023e-03</internalNodes>
          <leafValues>
            4.6504210680723190e-02 -7.4444925785064697e-01</leafValues></_>
        <_>
          <internalNodes>
            0 -1 478 2.9462669044733047e-02</internalNodes>
          <leafValues>
            -7.6117329299449921e-02 4.0389356017112732e-01</leafValues></_>
        <_>
          <internalNodes>
            0 -1 416 -5.6031636893749237e-02</internalNodes>
          <leafValues>
            2.4791979789733887e-01 -1.2473896890878677e-01</leafValues></_>
        <_>
          <internalNodes>
            0 -1 167 6.0687791556119919e-03</internalNodes>
          <leafValues>
            -1.2848244607448578e-01 2.5035881996154785e-01</leafValues></_>
        <_>
          <internalNodes>
            0 -1 164 1.2498967349529266e-02</internalNodes>
          <leafValues>
            3.7689223885536194e-02 -7.4232286214828491e-01</leafValues></_>
        <_>
          <internalNodes>
            0 -1 147 9.7999526187777519e-03</internalNodes>
          <leafValues>
            4.2604535818099976e-02 -5.7584631443023682e-01</leafValues></_>
        <_>
          <internalNodes>
            0 -1 213 3.2497540814802051e-05</internalNodes>
          <leafValues>
            -1.7624759674072266e-01 1.7181675136089325e-01</leafValues></_></weakClassifiers></_>
    <!-- stage 12 -->
    <_>
      <maxWeakCount>30</maxWeakCount>
      <stageThreshold>-1.4442819356918335e+00</stageThreshold>
      <weakClassifiers>
        <_>
          <internalNodes>
            0 -1 44 2.0837005227804184e-02</internalNodes>
          <leafValues>
            -6.4104729890823364e-01 8.7728738784790039e-01</leafValues></_>
        <_>
          <internalNodes>
            0 -1 488 4.5202923938632011e-03</internalNodes>
          <leafValues>
            -1.8207915127277374e-01 7.1443712711334229e-01</leafValues></_>
        <_>
          <internalNodes>
            0 -1 453 -9.4744644593447447e-04</internalNodes>
          <leafValues>
            -3.6102518439292908e-01 1.5591058135032654e-01</leafValues></_>
        <_>
          <internalNodes>
            0 -1 420 -1.9434513524174690e-02</internalNodes>
          <leafValues>
            2.7434349060058594e-01 -1.7154836654663086e-01</leafValues></_>
        <_>
          <internalNodes>
            0 -1 303 -1.7716605216264725e-02</internalNodes>
          <leafValues>
            7.2660338878631592e-01 -6.8466939032077789e-02</leafValues></_>
        <_>
          <internalNodes>
            0 -1 265 -1.3305820524692535e-01</internalNodes>
          <leafValues>
            -9.1919481754302979e-01 4.4485446065664291e-02</leafValues></_>
        <_>
          <internalNodes>
            0 -1 263 -1.9075989723205566e-01</internalNodes>
          <leafValues>
            7.7916383743286133e-01 -2.9048025608062744e-02</leafValues></_>
        <_>
          <internalNodes>
            0 -1 49 1.0024989023804665e-02</internalNodes>
          <leafValues>
            6.8652488291263580e-02 -6.3660097122192383e-01</leafValues></_>
        <_>
          <internalNodes>
            0 -1 455 2.3439642973244190e-03</internalNodes>
          <leafValues>
            9.0489923954010010e-02 -5.9068357944488525e-01</leafValues></_>
        <_>
          <internalNodes>
            0 -1 404 4.9221300287172198e-04</internalNodes>
          <leafValues>
            -1.4338661730289459e-01 3.3098539710044861e-01</leafValues></_>
        <_>
          <internalNodes>
            0 -1 350 2.6688326150178909e-02</internalNodes>
          <leafValues>
            5.0820823758840561e-02 -6.2096512317657471e-01</leafValues></_>
        <_>
          <internalNodes>
            0 -1 494 -3.0013598501682281e-02</internalNodes>
          <leafValues>
            4.9235239624977112e-01 -7.4090428650379181e-02</leafValues></_>
        <_>
          <internalNodes>
            0 -1 391 -1.9620360806584358e-02</internalNodes>
          <leafValues>
            3.0768004059791565e-01 -1.1482960730791092e-01</leafValues></_>
        <_>
          <internalNodes>
            0 -1 74 4.9088774248957634e-03</internalNodes>
          <leafValues>
            9.6093349158763885e-02 -4.5360508561134338e-01</leafValues></_>
        <_>
          <internalNodes>
            0 -1 186 2.3731460794806480e-02</internalNodes>
          <leafValues>
            -7.8471049666404724e-02 4.9532619118690491e-01</leafValues></_>
        <_>
          <internalNodes>
            0 -1 412 -2.0556818693876266e-02</internalNodes>
          <leafValues>
            3.9524903893470764e-01 -1.1523735523223877e-01</leafValues></_>
        <_>
          <internalNodes>
            0 -1 189 -1.1964151635766029e-02</internalNodes>
          <leafValues>
            1.9651798903942108e-01 -2.0997937023639679e-01</leafValues></_>
        <_>
          <internalNodes>
            0 -1 298 -6.6078202798962593e-03</internalNodes>
          <leafValues>
            2.1460314095020294e-01 -1.7500956356525421e-01</leafValues></_>
        <_>
          <internalNodes>
            0 -1 334 4.5897182077169418e-02</internalNodes>
          <leafValues>
            -7.3856420814990997e-02 4.6437078714370728e-01</leafValues></_>
        <_>
          <internalNodes>
            0 -1 448 1.5432355925440788e-02</internalNodes>
          <leafValues>
            -1.0351506620645523e-01 3.6646902561187744e-01</leafValues></_>
        <_>
          <internalNodes>
            0 -1 297 2.8320793062448502e-02</internalNodes>
          <leafValues>
            -1.3183887302875519e-01 2.8470009565353394e-01</leafValues></_>
        <_>
          <internalNodes>
            0 -1 228 2.6285868883132935e-01</internalNodes>
          <leafValues>
            -5.0620984286069870e-02 7.5687396526336670e-01</leafValues></_>
        <_>
          <internalNodes>
            0 -1 573 3.8571234326809645e-03</internalNodes>
          <leafValues>
            8.2369357347488403e-02 -5.6948626041412354e-01</leafValues></_>
        <_>
          <internalNodes>
            0 -1 77 -3.3817410469055176e-02</internalNodes>
          <leafValues>
            4.9103778600692749e-01 -7.5582236051559448e-02</leafValues></_>
        <_>
          <internalNodes>
            0 -1 212 -1.8346391152590513e-03</internalNodes>
          <leafValues>
            -5.0643360614776611e-01 7.9366520047187805e-02</leafValues></_>
        <_>
          <internalNodes>
            0 -1 125 2.2225713473744690e-04</internalNodes>
          <leafValues>
            -2.0512250065803528e-01 1.5701378881931305e-01</leafValues></_>
        <_>
          <internalNodes>
            0 -1 551 1.0518785566091537e-02</internalNodes>
          <leafValues>
            3.4594725817441940e-02 -7.8564631938934326e-01</leafValues></_>
        <_>
          <internalNodes>
            0 -1 516 9.8411645740270615e-03</internalNodes>
          <leafValues>
            -1.6278462111949921e-01 2.1743579208850861e-01</leafValues></_>
        <_>
          <internalNodes>
            0 -1 322 -1.1687559890560806e-04</internalNodes>
          <leafValues>
            -1.8619583547115326e-01 1.9038620591163635e-01</leafValues></_>
        <_>
          <internalNodes>
            0 -1 245 2.7735579758882523e-02</internalNodes>
          <leafValues>
            -8.8669478893280029e-02 3.8537380099296570e-01</leafValues></_></weakClassifiers></_>
    <!-- stage 13 -->
    <_>
      <maxWeakCount>37</maxWeakCount>
      <stageThreshold>-1.4375506639480591e+00</stageThreshold>
      <weakClassifiers>
        <_>
          <internalNodes>
            0 -1 373 6.7852370440959930e-02</internalNodes>
          <leafValues>
            -6.3612681627273560e-01 7.6659959554672241e-01</leafValues></_>
        <_>
          <internalNodes>
            0 -1 34 2.0639027655124664e-01</internalNodes>
          <leafValues>
            -1.9245308637619019e-01 6.7011314630508423e-01</leafValues></_>
        <_>
          <internalNodes>
            0 -1 378 4.7529861330986023e-02</internalNodes>
          <leafValues>
            7.9495735466480255e-02 -7.9363167285919189e-01</leafValues></_>
        <_>
          <internalNodes>
            0 -1 126 5.0024881958961487e-02</internalNodes>
          <leafValues>
            5.0728000700473785e-02 -7.2943848371505737e-01</leafValues></_>
        <_>
          <internalNodes>
            0 -1 29 -2.9397878795862198e-02</internalNodes>
          <leafValues>
            2.8719684481620789e-01 -1.5269373357295990e-01</leafValues></_>
        <_>
          <internalNodes>
            0 -1 521 2.4001542478799820e-03</internalNodes>
          <leafValues>
            8.9460514485836029e-02 -4.3212357163429260e-01</leafValues></_>
        <_>
          <internalNodes>
            0 -1 567 -4.7528039431199431e-04</internalNodes>
          <leafValues>
            -2.5371301174163818e-01 1.5791854262351990e-01</leafValues></_>
        <_>
          <internalNodes>
            0 -1 0 2.8828894719481468e-03</internalNodes>
          <leafValues>
            5.6565962731838226e-02 -5.8847272396087646e-01</leafValues></_>
        <_>
          <internalNodes>
            0 -1 185 2.6065576821565628e-02</internalNodes>
          <leafValues>
            -7.1950115263462067e-02 3.9465337991714478e-01</leafValues></_>
        <_>
          <internalNodes>
            0 -1 200 1.0505181550979614e-01</internalNodes>
          <leafValues>
            -1.3010887801647186e-01 2.7610662579536438e-01</leafValues></_>
        <_>
          <internalNodes>
            0 -1 47 -4.3043565005064011e-02</internalNodes>
          <leafValues>
            2.3763319849967957e-01 -1.9640143215656281e-01</leafValues></_>
        <_>
          <internalNodes>
            0 -1 254 -1.3124566525220871e-02</internalNodes>
          <leafValues>
            2.3306261003017426e-01 -1.5604570508003235e-01</leafValues></_>
        <_>
          <internalNodes>
            0 -1 81 5.1138037815690041e-03</internalNodes>
          <leafValues>
            -1.2712906301021576e-01 2.4454414844512939e-01</leafValues></_>
        <_>
          <internalNodes>
            0 -1 206 -4.2135268449783325e-03</internalNodes>
          <leafValues>
            2.5419446825981140e-01 -1.2648849189281464e-01</leafValues></_>
        <_>
          <internalNodes>
            0 -1 397 -4.5023261918686330e-05</internalNodes>
          <leafValues>
            1.8338590860366821e-01 -1.7542050778865814e-01</leafValues></_>
        <_>
          <internalNodes>
            0 -1 505 -2.1398246288299561e-02</internalNodes>
          <leafValues>
            4.2128235101699829e-01 -6.5169058740139008e-02</leafValues></_>
        <_>
          <internalNodes>
            0 -1 127 4.6979361213743687e-03</internalNodes>
          <leafValues>
            4.6014849096536636e-02 -7.8106743097305298e-01</leafValues></_>
        <_>
          <internalNodes>
            0 -1 238 1.3366714119911194e-01</internalNodes>
          <leafValues>
            3.0114430934190750e-02 -8.5487759113311768e-01</leafValues></_>
        <_>
          <internalNodes>
            0 -1 69 6.8381344899535179e-03</internalNodes>
          <leafValues>
            7.2695456445217133e-02 -4.0374591946601868e-01</leafValues></_>
        <_>
          <internalNodes>
            0 -1 542 4.9172091530635953e-04</internalNodes>
          <leafValues>
            -1.3206718862056732e-01 2.3704209923744202e-01</leafValues></_>
        <_>
          <internalNodes>
            0 -1 52 -1.1136421933770180e-02</internalNodes>
          <leafValues>
            1.8213300406932831e-01 -1.5388317406177521e-01</leafValues></_>
        <_>
          <internalNodes>
            0 -1 95 4.0011322125792503e-03</internalNodes>
          <leafValues>
            5.9737190604209900e-02 -4.9507689476013184e-01</leafValues></_>
        <_>
          <internalNodes>
            0 -1 176 6.1897136038169265e-04</internalNodes>
          <leafValues>
            -1.4622013270854950e-01 1.9098062813282013e-01</leafValues></_>
        <_>
          <internalNodes>
            0 -1 241 5.1534218073356897e-05</internalNodes>
          <leafValues>
            -1.7002031207084656e-01 1.6289463639259338e-01</leafValues></_>
        <_>
          <internalNodes>
            0 -1 309 1.4433392789214849e-03</internalNodes>
          <leafValues>
            -7.5995571911334991e-02 4.0000692009925842e-01</leafValues></_>
        <_>
          <internalNodes>
            0 -1 173 -9.2245206236839294e-02</internalNodes>
          <leafValues>
            6.4470624923706055e-01 -3.6577120423316956e-02</leafValues></_>
        <_>
          <internalNodes>
            0 -1 247 -2.6018026471138000e-01</internalNodes>
          <leafValues>
            5.1957052946090698e-01 -4.4186491519212723e-02</leafValues></_>
        <_>
          <internalNodes>
            0 -1 262 1.1485148221254349e-02</internalNodes>
          <leafValues>
            -1.5342864394187927e-01 1.9848328828811646e-01</leafValues></_>
        <_>
          <internalNodes>
            0 -1 112 1.5611493587493896e-01</internalNodes>
          <leafValues>
            3.2881177961826324e-02 -7.1837162971496582e-01</leafValues></_>
        <_>
          <internalNodes>
            0 -1 512 3.4103246434824541e-05</internalNodes>
          <leafValues>
            -1.6875448822975159e-01 1.7173814773559570e-01</leafValues></_>
        <_>
          <internalNodes>
            0 -1 422 -2.4847090244293213e-02</internalNodes>
          <leafValues>
            4.0004491806030273e-01 -6.3721217215061188e-02</leafValues></_>
        <_>
          <internalNodes>
            0 -1 181 1.1888130102306604e-03</internalNodes>
          <leafValues>
            5.4659940302371979e-02 -5.2765041589736938e-01</leafValues></_>
        <_>
          <internalNodes>
            0 -1 165 6.1433643102645874e-02</internalNodes>
          <leafValues>
            -7.4378781020641327e-02 3.6419484019279480e-01</leafValues></_>
        <_>
          <internalNodes>
            0 -1 461 4.9806079914560542e-05</internalNodes>
          <leafValues>
            -1.8219470977783203e-01 1.7055322229862213e-01</leafValues></_>
        <_>
          <internalNodes>
            0 -1 464 2.1232182625681162e-03</internalNodes>
          <leafValues>
            -3.9196748286485672e-02 6.0085749626159668e-01</leafValues></_>
        <_>
          <internalNodes>
            0 -1 449 -9.1673275455832481e-03</internalNodes>
          <leafValues>
            4.3091472983360291e-01 -5.9236176311969757e-02</leafValues></_>
        <_>
          <internalNodes>
            0 -1 497 1.3056122697889805e-03</internalNodes>
          <leafValues>
            -1.2252182513475418e-01 2.4628348648548126e-01</leafValues></_></weakClassifiers></_>
    <!-- stage 14 -->
    <_>
      <maxWeakCount>36</maxWeakCount>
      <stageThreshold>-1.3377771377563477e+00</stageThreshold>
      <weakClassifiers>
        <_>
          <internalNodes>
            0 -1 152 1.1843724176287651e-02</internalNodes>
          <leafValues>
            -6.4797914028167725e-01 7.9116463661193848e-01</leafValues></_>
        <_>
          <internalNodes>
            0 -1 421 -8.0670930445194244e-02</internalNodes>
          <leafValues>
            6.5762811899185181e-01 -2.0740868151187897e-01</leafValues></_>
        <_>
          <internalNodes>
            0 -1 101 2.9009480029344559e-02</internalNodes>
          <leafValues>
            8.8316693902015686e-02 -9.6273916959762573e-01</leafValues></_>
        <_>
          <internalNodes>
            0 -1 338 -1.2618565931916237e-02</internalNodes>
          <leafValues>
            6.9517701864242554e-01 -7.6124466955661774e-02</leafValues></_>
        <_>
          <internalNodes>
            0 -1 320 1.3959119678474963e-04</internalNodes>
          <leafValues>
            -2.9142382740974426e-01 1.7487542331218719e-01</leafValues></_>
        <_>
          <internalNodes>
            0 -1 392 -5.1910646259784698e-02</internalNodes>
          <leafValues>
            4.3864417076110840e-01 -8.2392118871212006e-02</leafValues></_>
        <_>
          <internalNodes>
            0 -1 540 -4.6084696077741683e-04</internalNodes>
          <leafValues>
            -2.5083479285240173e-01 1.3851150870323181e-01</leafValues></_>
        <_>
          <internalNodes>
            0 -1 393 1.6736028715968132e-02</internalNodes>
          <leafValues>
            -9.7837641835212708e-02 3.2249718904495239e-01</leafValues></_>
        <_>
          <internalNodes>
            0 -1 332 -3.1286269426345825e-02</internalNodes>
          <leafValues>
            -7.4480086565017700e-01 4.3456714600324631e-02</leafValues></_>
        <_>
          <internalNodes>
            0 -1 25 -1.8543057143688202e-02</internalNodes>
          <leafValues>
            3.3275258541107178e-01 -1.0400757938623428e-01</leafValues></_>
        <_>
          <internalNodes>
            0 -1 492 2.1373504772782326e-02</internalNodes>
          <leafValues>
            4.6447999775409698e-02 -6.8852412700653076e-01</leafValues></_>
        <_>
          <internalNodes>
            0 -1 445 1.1797860264778137e-02</internalNodes>
          <leafValues>
            -9.4200685620307922e-02 3.2485079765319824e-01</leafValues></_>
        <_>
          <internalNodes>
            0 -1 276 2.9448405839502811e-03</internalNodes>
          <leafValues>
            -1.1208923161029816e-01 3.0790531635284424e-01</leafValues></_>
        <_>
          <internalNodes>
            0 -1 208 -7.1891834959387779e-03</internalNodes>
          <leafValues>
            3.2114923000335693e-01 -1.0126662999391556e-01</leafValues></_>
        <_>
          <internalNodes>
            0 -1 506 1.4132637297734618e-03</internalNodes>
          <leafValues>
            -1.8471011519432068e-01 1.8563161790370941e-01</leafValues></_>
        <_>
          <internalNodes>
            0 -1 385 1.1026205494999886e-02</internalNodes>
          <leafValues>
            -1.3464248180389404e-01 2.9843914508819580e-01</leafValues></_>
        <_>
          <internalNodes>
            0 -1 295 3.8532223552465439e-03</internalNodes>
          <leafValues>
            -1.1976552754640579e-01 2.8903850913047791e-01</leafValues></_>
        <_>
          <internalNodes>
            0 -1 194 7.8425311949104071e-04</internalNodes>
          <leafValues>
            -1.3951306045055389e-01 2.3072573542594910e-01</leafValues></_>
        <_>
          <internalNodes>
            0 -1 424 -1.0372856259346008e-01</internalNodes>
          <leafValues>
            5.2051126956939697e-01 -6.9044172763824463e-02</leafValues></_>
        <_>
          <internalNodes>
            0 -1 534 2.3768853396177292e-02</internalNodes>
          <leafValues>
            6.5946139395236969e-02 -6.1968922615051270e-01</leafValues></_>
        <_>
          <internalNodes>
            0 -1 197 -1.6808796208351851e-03</internalNodes>
          <leafValues>
            2.7550986409187317e-01 -1.3658800721168518e-01</leafValues></_>
        <_>
          <internalNodes>
            0 -1 288 -3.1151730567216873e-02</internalNodes>
          <leafValues>
            1.7778523266315460e-01 -1.6744324564933777e-01</leafValues></_>
        <_>
          <internalNodes>
            0 -1 225 2.4334612488746643e-01</internalNodes>
          <leafValues>
            -7.1335047483444214e-02 4.5245596766471863e-01</leafValues></_>
        <_>
          <internalNodes>
            0 -1 360 4.1977842338383198e-03</internalNodes>
          <leafValues>
            -1.3868229091167450e-01 2.3296694457530975e-01</leafValues></_>
        <_>
          <internalNodes>
            0 -1 122 -2.2697597742080688e-01</internalNodes>
          <leafValues>
            4.0920689702033997e-01 -6.2782041728496552e-02</leafValues></_>
        <_>
          <internalNodes>
            0 -1 439 7.6259281486272812e-03</internalNodes>
          <leafValues>
            -1.2694552540779114e-01 2.4065215885639191e-01</leafValues></_>
        <_>
          <internalNodes>
            0 -1 233 -2.9361907392740250e-02</internalNodes>
          <leafValues>
            6.0755395889282227e-01 -5.6215867400169373e-02</leafValues></_>
        <_>
          <internalNodes>
            0 -1 559 -2.1484238095581532e-03</internalNodes>
          <leafValues>
            -4.2339402437210083e-01 7.8576169908046722e-02</leafValues></_>
        <_>
          <internalNodes>
            0 -1 116 -6.3424199819564819e-02</internalNodes>
          <leafValues>
            5.6629365682601929e-01 -5.0936523824930191e-02</leafValues></_>
        <_>
          <internalNodes>
            0 -1 538 -3.3453026844654232e-05</internalNodes>
          <leafValues>
            1.7171609401702881e-01 -1.7498724162578583e-01</leafValues></_>
        <_>
          <internalNodes>
            0 -1 292 1.2599176261574030e-03</internalNodes>
          <leafValues>
            -1.0218368470668793e-01 2.8234112262725830e-01</leafValues></_>
        <_>
          <internalNodes>
            0 -1 550 -6.9815721362829208e-03</internalNodes>
          <leafValues>
            -4.9109390377998352e-01 5.8853343129158020e-02</leafValues></_>
        <_>
          <internalNodes>
            0 -1 6 8.7305754423141479e-03</internalNodes>
          <leafValues>
            2.8510654345154762e-02 -8.6581474542617798e-01</leafValues></_>
        <_>
          <internalNodes>
            0 -1 169 -9.1585800051689148e-02</internalNodes>
          <leafValues>
            -7.2328186035156250e-01 3.0060688033699989e-02</leafValues></_>
        <_>
          <internalNodes>
            0 -1 260 3.5444647073745728e-03</internalNodes>
          <leafValues>
            -1.1066693812608719e-01 2.5410589575767517e-01</leafValues></_>
        <_>
          <internalNodes>
            0 -1 142 2.2555734962224960e-02</internalNodes>
          <leafValues>
            -8.6244530975818634e-02 3.2493662834167480e-01</leafValues></_></weakClassifiers></_>
    <!-- stage 15 -->
    <_>
      <maxWeakCount>34</maxWeakCount>
      <stageThreshold>-1.3762882947921753e+00</stageThreshold>
      <weakClassifiers>
        <_>
          <internalNodes>
            0 -1 153 2.3424234241247177e-02</internalNodes>
          <leafValues>
            -6.4838987588882446e-01 7.8778779506683350e-01</leafValues></_>
        <_>
          <internalNodes>
            0 -1 333 -7.6516279950737953e-03</internalNodes>
          <leafValues>
            6.1813426017761230e-01 -1.9250905513763428e-01</leafValues></_>
        <_>
          <internalNodes>
            0 -1 184 3.6604553461074829e-02</internalNodes>
          <leafValues>
            7.6700009405612946e-02 -9.5077919960021973e-01</leafValues></_>
        <_>
          <internalNodes>
            0 -1 414 2.8336215764284134e-03</internalNodes>
          <leafValues>
            6.7584089934825897e-02 -5.8993995189666748e-01</leafValues></_>
        <_>
          <internalNodes>
            0 -1 12 5.2367947995662689e-02</internalNodes>
          <leafValues>
            -7.1431286633014679e-02 6.6763204336166382e-01</leafValues></_>
        <_>
          <internalNodes>
            0 -1 281 -2.8468612581491470e-03</internalNodes>
          <leafValues>
            -3.5904818773269653e-01 1.3069939613342285e-01</leafValues></_>
        <_>
          <internalNodes>
            0 -1 16 2.7371380478143692e-02</internalNodes>
          <leafValues>
            5.2606128156185150e-02 -8.6866158246994019e-01</leafValues></_>
        <_>
          <internalNodes>
            0 -1 294 7.4616409838199615e-03</internalNodes>
          <leafValues>
            -1.5221001207828522e-01 2.1768733859062195e-01</leafValues></_>
        <_>
          <internalNodes>
            0 -1 435 -1.2356308288872242e-03</internalNodes>
          <leafValues>
            -3.9621588587760925e-01 8.4018833935260773e-02</leafValues></_>
        <_>
          <internalNodes>
            0 -1 514 -3.2242720481008291e-03</internalNodes>
          <leafValues>
            -3.7669187784194946e-01 7.3990926146507263e-02</leafValues></_>
        <_>
          <internalNodes>
            0 -1 94 -1.4659768203273416e-03</internalNodes>
          <leafValues>
            -3.7614104151725769e-01 9.8556570708751678e-02</leafValues></_>
        <_>
          <internalNodes>
            0 -1 537 -5.4931631893850863e-05</internalNodes>
          <leafValues>
            1.8904586136341095e-01 -1.5019392967224121e-01</leafValues></_>
        <_>
          <internalNodes>
            0 -1 90 1.5011690557003021e-02</internalNodes>
          <leafValues>
            -1.3063827157020569e-01 2.1553152799606323e-01</leafValues></_>
        <_>
          <internalNodes>
            0 -1 310 -1.3363754749298096e-01</internalNodes>
          <leafValues>
            6.7728251218795776e-01 -3.6080636084079742e-02</leafValues></_>
        <_>
          <internalNodes>
            0 -1 110 1.0425779223442078e-01</internalNodes>
          <leafValues>
            -2.8257090598344803e-02 7.2511214017868042e-01</leafValues></_>
        <_>
          <internalNodes>
            0 -1 32 -3.8574289530515671e-02</internalNodes>
          <leafValues>
            2.6494386792182922e-01 -1.2433318048715591e-01</leafValues></_>
        <_>
          <internalNodes>
            0 -1 460 -3.8041666150093079e-02</internalNodes>
          <leafValues>
            4.7496283054351807e-01 -5.3792588412761688e-02</leafValues></_>
        <_>
          <internalNodes>
            0 -1 440 -3.9316594600677490e-02</internalNodes>
          <leafValues>
            4.9778005480766296e-01 -6.2643699347972870e-02</leafValues></_>
        <_>
          <internalNodes>
            0 -1 369 3.2388310879468918e-02</internalNodes>
          <leafValues>
            -6.0071993619203568e-02 4.2050328850746155e-01</leafValues></_>
        <_>
          <internalNodes>
            0 -1 318 3.9121033623814583e-03</internalNodes>
          <leafValues>
            -1.0126333683729172e-01 3.2317322492599487e-01</leafValues></_>
        <_>
          <internalNodes>
            0 -1 123 8.1107560545206070e-03</internalNodes>
          <leafValues>
            4.4989902526140213e-02 -8.1608724594116211e-01</leafValues></_>
        <_>
          <internalNodes>
            0 -1 443 2.3401439189910889e-02</internalNodes>
          <leafValues>
            -4.9230404198169708e-02 7.5637865066528320e-01</leafValues></_>
        <_>
          <internalNodes>
            0 -1 277 1.8152246251702309e-02</internalNodes>
          <leafValues>
            5.2154775708913803e-02 -6.5407103300094604e-01</leafValues></_>
        <_>
          <internalNodes>
            0 -1 346 -5.8794338256120682e-03</internalNodes>
          <leafValues>
            -8.4573072195053101e-01 3.1488973647356033e-02</leafValues></_>
        <_>
          <internalNodes>
            0 -1 430 1.2766197323799133e-04</internalNodes>
          <leafValues>
            -1.4342795312404633e-01 2.2377400100231171e-01</leafValues></_>
        <_>
          <internalNodes>
            0 -1 447 -1.9270348275313154e-05</internalNodes>
          <leafValues>
            1.7155396938323975e-01 -1.5946032106876373e-01</leafValues></_>
        <_>
          <internalNodes>
            0 -1 480 4.2567765340209007e-03</internalNodes>
          <leafValues>
            -1.0912385582923889e-01 2.5575038790702820e-01</leafValues></_>
        <_>
          <internalNodes>
            0 -1 60 -4.4994503259658813e-03</internalNodes>
          <leafValues>
            2.2952917218208313e-01 -1.1295022815465927e-01</leafValues></_>
        <_>
          <internalNodes>
            0 -1 130 5.7795927859842777e-03</internalNodes>
          <leafValues>
            -1.2704826891422272e-01 2.2998060286045074e-01</leafValues></_>
        <_>
          <internalNodes>
            0 -1 53 1.0316482803318650e-04</internalNodes>
          <leafValues>
            -1.5935514867305756e-01 1.5902370214462280e-01</leafValues></_>
        <_>
          <internalNodes>
            0 -1 522 1.0568371042609215e-02</internalNodes>
          <leafValues>
            6.5105527639389038e-02 -3.7458410859107971e-01</leafValues></_>
        <_>
          <internalNodes>
            0 -1 383 1.3572175521403551e-03</internalNodes>
          <leafValues>
            -1.2639671564102173e-01 1.9910362362861633e-01</leafValues></_>
        <_>
          <internalNodes>
            0 -1 426 -7.5332941487431526e-03</internalNodes>
          <leafValues>
            5.4073405265808105e-01 -4.3233003467321396e-02</leafValues></_>
        <_>
          <internalNodes>
            0 -1 36 -9.8659306764602661e-02</internalNodes>
          <leafValues>
            3.5984632372856140e-01 -6.5839372575283051e-02</leafValues></_></weakClassifiers></_>
    <!-- stage 16 -->
    <_>
      <maxWeakCount>43</maxWeakCount>
      <stageThreshold>-1.3435708284378052e+00</stageThreshold>
      <weakClassifiers>
        <_>
          <internalNodes>
            0 -1 400 1.1327358335256577e-01</internalNodes>
          <leafValues>
            -6.6207200288772583e-01 7.5000000000000000e-01</leafValues></_>
        <_>
          <internalNodes>
            0 -1 42 1.3648357242345810e-02</internalNodes>
          <leafValues>
            -2.0618242025375366e-01 7.0045155286788940e-01</leafValues></_>
        <_>
          <internalNodes>
            0 -1 287 1.0179851949214935e-01</internalNodes>
          <leafValues>
            8.7178684771060944e-02 -7.9265874624252319e-01</leafValues></_>
        <_>
          <internalNodes>
            0 -1 405 -3.3397749066352844e-03</internalNodes>
          <leafValues>
            1.8879158794879913e-01 -2.4160423874855042e-01</leafValues></_>
        <_>
          <internalNodes>
            0 -1 432 -1.3158908113837242e-02</internalNodes>
          <leafValues>
            -9.4656604528427124e-01 3.5215664654970169e-02</leafValues></_>
        <_>
          <internalNodes>
            0 -1 471 1.1259448947384953e-03</internalNodes>
          <leafValues>
            -9.8256886005401611e-02 3.6381977796554565e-01</leafValues></_>
        <_>
          <internalNodes>
            0 -1 31 6.4598857425153255e-03</internalNodes>
          <leafValues>
            1.0760635137557983e-01 -3.4178084135055542e-01</leafValues></_>
        <_>
          <internalNodes>
            0 -1 154 -2.2967930417507887e-03</internalNodes>
          <leafValues>
            2.1752871572971344e-01 -1.7044779658317566e-01</leafValues></_>
        <_>
          <internalNodes>
            0 -1 296 -1.6947399824857712e-02</internalNodes>
          <leafValues>
            2.5163516402244568e-01 -1.5228046476840973e-01</leafValues></_>
        <_>
          <internalNodes>
            0 -1 106 2.5450322777032852e-02</internalNodes>
          <leafValues>
            1.0214917361736298e-01 -5.4741740226745605e-01</leafValues></_>
        <_>
          <internalNodes>
            0 -1 409 1.7667137086391449e-02</internalNodes>
          <leafValues>
            -1.3664841651916504e-01 3.5528734326362610e-01</leafValues></_>
        <_>
          <internalNodes>
            0 -1 519 1.2990521267056465e-02</internalNodes>
          <leafValues>
            -3.1932182610034943e-02 4.9021449685096741e-01</leafValues></_>
        <_>
          <internalNodes>
            0 -1 546 1.0623754933476448e-02</internalNodes>
          <leafValues>
            3.9202887564897537e-02 -5.1939868927001953e-01</leafValues></_>
        <_>
          <internalNodes>
            0 -1 58 -3.9956709370017052e-03</internalNodes>
          <leafValues>
            3.1427043676376343e-01 -8.0602139234542847e-02</leafValues></_>
        <_>
          <internalNodes>
            0 -1 545 -9.2542113270610571e-04</internalNodes>
          <leafValues>
            -2.2843191027641296e-01 1.1209137737751007e-01</leafValues></_>
        <_>
          <internalNodes>
            0 -1 99 -2.5635028723627329e-03</internalNodes>
          <leafValues>
            -3.6962211132049561e-01 7.1626424789428711e-02</leafValues></_>
        <_>
          <internalNodes>
            0 -1 218 4.3991829443257302e-05</internalNodes>
          <leafValues>
            -1.7943744361400604e-01 1.7207677662372589e-01</leafValues></_>
        <_>
          <internalNodes>
            0 -1 2 1.0213636793196201e-02</internalNodes>
          <leafValues>
            2.6833439245820045e-02 -8.0413901805877686e-01</leafValues></_>
        <_>
          <internalNodes>
            0 -1 215 2.1890797652304173e-03</internalNodes>
          <leafValues>
            -1.6404734551906586e-01 1.7664228379726410e-01</leafValues></_>
        <_>
          <internalNodes>
            0 -1 554 4.3693231418728828e-03</internalNodes>
          <leafValues>
            4.2578902095556259e-02 -4.5821058750152588e-01</leafValues></_>
        <_>
          <internalNodes>
            0 -1 402 7.3361061513423920e-03</internalNodes>
          <leafValues>
            -8.0303542315959930e-02 2.8692775964736938e-01</leafValues></_>
        <_>
          <internalNodes>
